digraph Tree {
node [shape=box, style="rounded", color="black", fontname=helvetica] ;
edge [fontname=helvetica] ;
0 [label="Unnamed: 0 <= 12.5\nmse = 0.1\nsamples = 8\nvalue = 0.5"] ;
1 [label="avg_height <= 49.8\nmse = 0.0\nsamples = 6\nvalue = 0.6"] ;
0 -> 1 [labeldistance=2.5, labelangle=45, headlabel="True"] ;
2 [label="mse = 0.0\nsamples = 1\nvalue = 0.2"] ;
1 -> 2 ;
3 [label="obj_num <= 2.5\nmse = 0.0\nsamples = 5\nvalue = 0.7"] ;
1 -> 3 ;
4 [label="mse = 0.0\nsamples = 2\nvalue = 0.8"] ;
3 -> 4 ;
5 [label="mse = 0.0\nsamples = 3\nvalue = 0.6"] ;
3 -> 5 ;
6 [label="avg_y1 <= 856.8\nmse = 0.0\nsamples = 2\nvalue = 0.2"] ;
0 -> 6 [labeldistance=2.5, labelangle=-45, headlabel="False"] ;
7 [label="mse = 0.0\nsamples = 1\nvalue = 0.2"] ;
6 -> 7 ;
8 [label="mse = -0.0\nsamples = 1\nvalue = 0.2"] ;
6 -> 8 ;
}