digraph Tree {
node [shape=box, style="rounded", color="black", fontname=helvetica] ;
edge [fontname=helvetica] ;
0 [label="box_area <= 0.1\nmse = 0.0\nsamples = 9\nvalue = 0.6"] ;
1 [label="Unnamed: 0 <= 5.5\nmse = 0.1\nsamples = 3\nvalue = 0.3"] ;
0 -> 1 [labeldistance=2.5, labelangle=45, headlabel="True"] ;
2 [label="mse = 0.0\nsamples = 1\nvalue = 0.7"] ;
1 -> 2 ;
3 [label="avg_x1 <= 503.5\nmse = 0.0\nsamples = 2\nvalue = 0.2"] ;
1 -> 3 ;
4 [label="mse = 0.0\nsamples = 1\nvalue = 0.2"] ;
3 -> 4 ;
5 [label="mse = -0.0\nsamples = 1\nvalue = 0.2"] ;
3 -> 5 ;
6 [label="avg_y2 <= 1499.2\nmse = 0.0\nsamples = 6\nvalue = 0.7"] ;
0 -> 6 [labeldistance=2.5, labelangle=-45, headlabel="False"] ;
7 [label="avg_x2 <= 717.7\nmse = 0.0\nsamples = 5\nvalue = 0.6"] ;
6 -> 7 ;
8 [label="Unnamed: 0 <= 14.0\nmse = 0.0\nsamples = 3\nvalue = 0.6"] ;
7 -> 8 ;
9 [label="mse = 0.0\nsamples = 2\nvalue = 0.6"] ;
8 -> 9 ;
10 [label="mse = -0.0\nsamples = 1\nvalue = 0.6"] ;
8 -> 10 ;
11 [label="avg_y1 <= 639.3\nmse = 0.0\nsamples = 2\nvalue = 0.6"] ;
7 -> 11 ;
12 [label="mse = 0.0\nsamples = 1\nvalue = 0.6"] ;
11 -> 12 ;
13 [label="mse = 0.0\nsamples = 1\nvalue = 0.6"] ;
11 -> 13 ;
14 [label="mse = 0.0\nsamples = 1\nvalue = 0.8"] ;
6 -> 14 ;
}